{"learner":{"attributes":{"best_iteration":"9","best_ntree_limit":"10"},"feature_names":[],"feature_types":[],"gradient_booster":{"model":{"gbtree_model_param":{"num_parallel_tree":"1","num_trees":"30","size_leaf_vector":"0"},"tree_info":[0,1,2,0,1,2,0,1,2,0,1,2,0,1,2,0,1,2,0,1,2,0,1,2,0,1,2,0,1,2],"trees":[{"base_weights":[-4.4042842E-8,1.4354067E0,-7.3349637E-1],"categories":[],"categories_nodes":[],"categories_segments":[],"categories_sizes":[],"default_left":[1,0,0],"id":0,"left_children":[1,-1,-1],"loss_changes":[7.229677E1,0E0,0E0],"parents":[2147483647,0,0],"right_children":[2,-1,-1],"split_conditions":[2.45E0,1.4354067E-1,-7.334964E-2],"split_indices":[2,0,0],"split_type":[0,0,0],"sum_hessian":[6.6666664E1,2.2222221E1,4.4444443E1],"tree_param":{"num_deleted":"0","num_feature":"4","num_nodes":"3","size_leaf_vector":"0"}},{"base_weights":[-4.4042842E-8,-7.177034E-1,3.6674812E-1,1.24E0,-6.6839385E-1,1.3880597E0,-3.2511625E-8,-2.5544848E-8,-7.127072E-1,1.4285715E0,4.285714E-1,-4.2857146E-1,4.285714E-1],"categories":[],"categories_nodes":[],"categories_segments":[],"categories_sizes":[],"default_left":[1,0,1,1,1,1,1,0,0,0,0,0,0],"id":1,"left_children":[1,-1,3,5,7,9,11,-1,-1,-1,-1,-1,-1],"loss_changes":[1.8074192E1,0E0,4.190784E1,4.5898476E0,6.351595E-1,2.558632E-1,8.571428E-1,0E0,0E0,0E0,0E0,0E0,0E0],"parents":[2147483647,0,0,2,2,3,3,4,4,5,5,6,6],"right_children":[2,-1,4,6,8,10,12,-1,-1,-1,-1,-1,-1],"split_conditions":[2.45E0,-7.177034E-2,1.75E0,4.95E0,4.8500004E0,1.55E0,1.55E0,-2.5544848E-9,-7.127073E-2,1.4285715E-1,4.285714E-2,-4.2857148E-2,4.285714E-2],"split_indices":[2,0,3,2,2,3,3,0,0,0,0,0,0],"split_type":[0,0,0,0,0,0,0,0,0,0,0,0,0],"sum_hessian":[6.6666664E1,2.2222221E1,4.4444443E1,2.3999998E1,2.0444443E1,2.1333332E1,2.6666665E0,1.3333333E0,1.911111E1,1.9999998E1,1.3333333E0,1.3333333E0,1.3333333E0],"tree_param":{"num_deleted":"0","num_feature":"4","num_nodes":"13","size_leaf_vector":"0"}},{"base_weights":[-4.4042842E-8,-6.474821E-1,1.3432835E0,-7.3299754E-1,7.241379E-1],"categories":[],"categories_nodes":[],"categories_segments":[],"categories_sizes":[],"default_left":[1,1,0,0,0],"id":2,"left_children":[1,3,-1,-1,-1],"loss_changes":[5.972297E1,5.9654465E0,0E0,0E0,0E0],"parents":[2147483647,0,0,1,1],"right_children":[2,4,-1,-1,-1],"split_conditions":[1.6500001E0,4.95E0,1.3432835E-1,-7.329976E-2,7.2413795E-2],"split_indices":[3,2,0,0,0],"split_type":[0,0,0,0,0],"sum_hessian":[6.6666664E1,4.5333332E1,2.1333332E1,4.3111107E1,2.222222E0],"tree_param":{"num_deleted":"0","num_feature":"4","num_nodes":"5","size_leaf_vector":"0"}},{"base_weights":[-3.7776306E-4,1.2526625E0,-7.068269E-1],"categories":[],"categories_nodes":[],"categories_segments":[],"categories_sizes":[],"default_left":[1,0,0],"id":3,"left_children":[1,-1,-1],"loss_changes":[6.047372E1,0E0,0E0],"parents":[2147483647,0,0],"right_children":[2,-1,-1],"split_conditions":[2.45E0,1.2526625E-1,-7.06827E-2],"split_indices":[2,0,0],"split_type":[0,0,0],"sum_hessian":[6.63155E1,2.3629784E1,4.2685715E1],"tree_param":{"num_deleted":"0","num_feature":"4","num_nodes":"3","size_leaf_vector":"0"}},{"base_weights":[-3.055719E-4,-6.909673E-1,3.3513388E-1,1.0923915E0,-6.4238626E-1,1.2148703E0,2.7461657E-3,1.0258147E-2,-6.872379E-1,1.2469562E0,3.996557E-1,-4.1947806E-1,4.178089E-1],"categories":[],"categories_nodes":[],"categories_segments":[],"categories_sizes":[],"default_left":[1,0,1,1,1,1,1,0,0,0,0,0,0],"id":4,"left_children":[1,-1,3,5,7,9,11,-1,-1,-1,-1,-1,-1],"loss_changes":[1.5834252E1,0E0,3.475576E1,3.5056896E0,6.1331654E-1,1.19838715E-1,8.165067E-1,0E0,0E0,0E0,0E0,0E0,0E0],"parents":[2147483647,0,0,2,2,3,3,4,4,5,5,6,6],"right_children":[2,-1,4,6,8,10,12,-1,-1,-1,-1,-1,-1],"split_conditions":[2.45E0,-6.909674E-2,1.75E0,4.95E0,4.8500004E0,1.55E0,1.55E0,1.0258147E-3,-6.872379E-2,1.2469562E-1,3.996557E-2,-4.1947808E-2,4.178089E-2],"split_indices":[2,0,3,2,2,3,3,0,0,0,0,0,0],"split_type":[0,0,0,0,0,0,0,0,0,0,0,0,0],"sum_hessian":[6.6347244E1,2.134288E1,4.5004364E1,2.5293037E1,1.9711327E1,2.2633999E1,2.6590397E0,1.3171105E0,1.8394217E1,2.1267336E1,1.3666623E0,1.3128748E0,1.346165E0],"tree_param":{"num_deleted":"0","num_feature":"4","num_nodes":"13","size_leaf_vector":"0"}},{"base_weights":[6.835768E-4,-6.0200197E-1,1.2131675E0,-6.8374324E-1,4.8840913E-1,3.677854E-1,1.2515875E0,-7.055527E-1,-3.1472582E-3,8.006156E-1,-3.0436728E-2],"categories":[],"categories_nodes":[],"categories_segments":[],"categories_sizes":[],"default_left":[1,1,1,1,1,0,0,0,0,0,0],"id":5,"left_children":[1,3,5,7,9,-1,-1,-1,-1,-1,-1],"loss_changes":[4.9912342E1,4.4006157E0,2.762642E-1,6.339741E-1,6.3425916E-1,0E0,0E0,0E0,0E0,0E0,0E0],"parents":[2147483647,0,0,1,1,2,2,3,3,4,4],"right_children":[2,4,6,8,10,-1,-1,-1,-1,-1,-1],"split_conditions":[1.75E0,4.95E0,4.8500004E0,1.55E0,1.55E0,3.677854E-2,1.2515876E-1,-7.055527E-2,-3.1472582E-4,8.006156E-2,-3.0436728E-3],"split_indices":[3,2,2,3,3,0,0,0,0,0,0],"split_type":[0,0,0,0,0,0,0,0,0,0,0],"sum_hessian":[6.630378E1,4.462545E1,2.1678333E1,4.186039E1,2.765061E0,1.4019938E0,2.0276339E1,4.052511E1,1.3352802E0,1.3872418E0,1.3778191E0],"tree_param":{"num_deleted":"0","num_feature":"4","num_nodes":"11","size_leaf_vector":"0"}},{"base_weights":[-1.0130882E-3,1.1172905E0,-6.832579E-1],"categories":[],"categories_nodes":[],"categories_segments":[],"categories_sizes":[],"default_left":[1,0,0],"id":6,"left_children":[1,-1,-1],"loss_changes":[5.1364315E1,0E0,0E0],"parents":[2147483647,0,0],"right_children":[2,-1,-1],"split_conditions":[2.45E0,1.1172905E-1,-6.832579E-2],"split_indices":[2,0,0],"split_type":[0,0,0],"sum_hessian":[6.5322136E1,2.4509556E1,4.0812576E1],"tree_param":{"num_deleted":"0","num_feature":"4","num_nodes":"3","size_leaf_vector":"0"}},{"base_weights":[-7.48782E-4,-6.6702974E-1,3.089732E-1,9.785586E-1,-6.184595E-1,1.0853853E0,-1.5024265E-3,7.1114353E-3,-6.633331E-1,1.1122382E0,3.7367553E-1,-4.0864706E-1,3.907874E-1],"categories":[],"categories_nodes":[],"categories_segments":[],"categories_sizes":[],"default_left":[1,0,1,1,1,1,1,0,0,0,0,0,0],"id":7,"left_children":[1,-1,3,5,7,9,11,-1,-1,-1,-1,-1,-1],"loss_changes":[1.3914187E1,0E0,2.9190235E1,2.84087E0,5.636864E-1,5.1750183E-2,7.4490815E-1,0E0,0E0,0E0,0E0,0E0,0E0],"parents":[2147483647,0,0,2,2,3,3,4,4,5,5,6,6],"right_children":[2,-1,4,6,8,10,12,-1,-1,-1,-1,-1,-1],"split_conditions":[2.45E0,-6.670298E-2,1.75E0,4.95E0,4.8500004E0,1.55E0,1.55E0,7.1114354E-4,-6.6333316E-2,1.1122382E-1,3.7367553E-2,-4.0864706E-2,3.907874E-2],"split_indices":[2,0,3,2,2,3,3,0,0,0,0,0,0],"split_type":[0,0,0,0,0,0,0,0,0,0,0,0,0],"sum_hessian":[6.542746E1,2.0396471E1,4.503099E1,2.6118732E1,1.891226E1,2.3454702E1,2.66403E0,1.3221422E0,1.7590117E1,2.2059618E1,1.3950828E0,1.286803E0,1.3772271E0],"tree_param":{"num_deleted":"0","num_feature":"4","num_nodes":"13","size_leaf_vector":"0"}},{"base_weights":[1.7628967E-3,-6.583607E-1,9.570782E-1,-6.809144E-1,-6.0885777E-3,1.7537834E-1,1.0840306E0,-3.8467658E-1,4.5576414E-1,3.4391117E-1,1.1162843E0,7.45867E-1,-3.230772E-2],"categories":[],"categories_nodes":[],"categories_segments":[],"categories_sizes":[],"default_left":[1,1,1,0,0,1,1,0,1,0,0,0,0],"id":8,"left_children":[1,3,5,-1,-1,7,9,-1,11,-1,-1,-1,-1],"loss_changes":[4.2458458E1,5.81604E-1,2.5400925E0,0E0,0E0,9.662555E-1,1.7647552E-1,0E0,5.6414443E-1,0E0,0E0,0E0,0E0],"parents":[2147483647,0,0,1,1,2,2,5,5,6,6,8,8],"right_children":[2,4,6,-1,-1,8,10,-1,12,-1,-1,-1,-1],"split_conditions":[4.75E0,1.55E0,1.75E0,-6.8091445E-2,-6.088578E-4,4.95E0,4.8500004E0,-3.8467657E-2,1.55E0,3.4391116E-2,1.1162843E-1,7.4586704E-2,-3.2307722E-3],"split_indices":[2,3,3,0,0,2,2,0,3,0,0,0,0],"split_type":[0,0,0,0,0,0,0,0,0,0,0,0,0],"sum_hessian":[6.5328285E1,3.881674E1,2.6511549E1,3.747698E1,1.3397596E0,4.036785E0,2.2474766E1,1.222652E0,2.8141332E0,1.4255517E0,2.1049213E1,1.4337449E0,1.3803883E0],"tree_param":{"num_deleted":"0","num_feature":"4","num_nodes":"13","size_leaf_vector":"0"}},{"base_weights":[-1.5708435E-3,1.0135175E0,-6.6221565E-1],"categories":[],"categories_nodes":[],"categories_segments":[],"categories_sizes":[],"default_left":[1,0,0],"id":9,"left_children":[1,-1,-1],"loss_changes":[4.411313E1,0E0,0E0],"parents":[2147483647,0,0],"right_children":[2,-1,-1],"split_conditions":[2.45E0,1.0135175E-1,-6.6221565E-2],"split_indices":[2,0,0],"split_type":[0,0,0],"sum_hessian":[6.37795E1,2.4933996E1,3.88455E1],"tree_param":{"num_deleted":"0","num_feature":"4","num_nodes":"3","size_leaf_vector":"0"}},{"base_weights":[-9.3985087E-4,-6.4554334E-1,2.8754574E-1,8.8979363E-1,-5.9662324E-1,9.8582083E-1,-4.9945554E-3,4.7166543E-3,-6.418215E-1,4.0885928E-1,1.0173581E0,-3.9769563E-1,3.6607975E-1],"categories":[],"categories_nodes":[],"categories_segments":[],"categories_sizes":[],"default_left":[1,0,1,1,1,1,1,0,0,0,0,0,0],"id":10,"left_children":[1,-1,3,5,7,9,11,-1,-1,-1,-1,-1,-1],"loss_changes":[1.2272129E1,0E0,2.4808416E1,2.3696651E0,5.213747E-1,3.6375046E-2,6.792564E-1,0E0,0E0,0E0,0E0,0E0,0E0],"parents":[2147483647,0,0,2,2,3,3,4,4,5,5,6,6],"right_children":[2,-1,4,6,8,10,12,-1,-1,-1,-1,-1,-1],"split_conditions":[2.45E0,-6.455433E-2,1.75E0,4.95E0,4.8500004E0,5.05E0,1.55E0,4.7166544E-4,-6.4182155E-2,4.088593E-2,1.0173581E-1,-3.9769564E-2,3.6607977E-2],"split_indices":[2,0,3,2,2,0,3,0,0,0,0,0,0],"split_type":[0,0,0,0,0,0,0,0,0,0,0,0,0],"sum_hessian":[6.3995605E1,1.9403027E1,4.459258E1,2.6521328E1,1.807125E1,2.3859076E1,2.6622527E0,1.3259393E0,1.6745312E1,1.9603091E0,2.1898767E1,1.2585797E0,1.4036729E0],"tree_param":{"num_deleted":"0","num_feature":"4","num_nodes":"13","size_leaf_vector":"0"}},{"base_weights":[2.5102678E-3,-6.366538E-1,8.7204677E-1,-6.5947354E-1,-8.235389E-3,1.6637434E-1,9.841192E-1,-3.698494E-1,4.2667335E-1,3.2207426E-1,1.012406E0,6.979085E-1,-3.340724E-2],"categories":[],"categories_nodes":[],"categories_segments":[],"categories_sizes":[],"default_left":[1,1,1,0,0,1,1,0,1,0,0,0,0],"id":11,"left_children":[1,3,5,-1,-1,7,9,-1,11,-1,-1,-1,-1],"loss_changes":[3.6608807E1,5.390167E-1,2.0431404E0,0E0,0E0,8.5957694E-1,1.2107468E-1,0E0,5.0364083E-1,0E0,0E0,0E0,0E0],"parents":[2147483647,0,0,1,1,2,2,5,5,6,6,8,8],"right_children":[2,4,6,-1,-1,8,10,-1,12,-1,-1,-1,-1],"split_conditions":[4.75E0,1.55E0,1.75E0,-6.5947354E-2,-8.235389E-4,4.95E0,4.8500004E0,-3.6984943E-2,1.55E0,3.2207426E-2,1.012406E-1,6.9790855E-2,-3.3407242E-3],"split_indices":[2,3,3,0,0,2,2,0,3,0,0,0,0],"split_type":[0,0,0,0,0,0,0,0,0,0,0,0,0],"sum_hessian":[6.387071E1,3.6966114E1,2.6904594E1,3.562311E1,1.3429995E0,4.0277944E0,2.28768E1,1.178724E0,2.8490705E0,1.444917E0,2.1431883E1,1.4671829E0,1.3818876E0],"tree_param":{"num_deleted":"0","num_feature":"4","num_nodes":"13","size_leaf_vector":"0"}},{"base_weights":[-2.2243757E-3,9.318115E-1,-6.4346623E-1],"categories":[],"categories_nodes":[],"categories_segments":[],"categories_sizes":[],"default_left":[1,0,0],"id":12,"left_children":[1,-1,-1],"loss_changes":[3.821674E1,0E0,0E0],"parents":[2147483647,0,0],"right_children":[2,-1,-1],"split_conditions":[2.45E0,9.3181156E-2,-6.434663E-2],"split_indices":[2,0,0],"split_type":[0,0,0],"sum_hessian":[6.1805904E1,2.497462E1,3.6831284E1],"tree_param":{"num_deleted":"0","num_feature":"4","num_nodes":"3","size_leaf_vector":"0"}},{"base_weights":[-1.0353717E-3,-6.262016E-1,2.6952246E-1,8.1817114E-1,-5.765966E-1,9.0644854E-1,-7.885814E-3,2.9463083E-3,-6.2240255E-1,9.2979133E-1,3.1281206E-1,-3.8674945E-1,3.4339994E-1],"categories":[],"categories_nodes":[],"categories_segments":[],"categories_sizes":[],"default_left":[1,0,1,1,1,1,1,0,0,0,0,0,0],"id":13,"left_children":[1,-1,3,5,7,9,11,-1,-1,-1,-1,-1,-1],"loss_changes":[1.0853382E1,0E0,2.1263096E1,2.0185719E0,4.8509407E-1,5.4592133E-2,6.1918277E-1,0E0,0E0,0E0,0E0,0E0,0E0],"parents":[2147483647,0,0,2,2,3,3,4,4,5,5,6,6],"right_children":[2,-1,4,6,8,10,12,-1,-1,-1,-1,-1,-1],"split_conditions":[2.45E0,-6.262016E-2,1.75E0,4.95E0,4.8500004E0,1.55E0,1.55E0,2.9463085E-4,-6.2240254E-2,9.297913E-2,3.1281207E-2,-3.8674947E-2,3.4339994E-2],"split_indices":[2,0,3,2,2,3,3,0,0,0,0,0,0],"split_type":[0,0,0,0,0,0,0,0,0,0,0,0,0],"sum_hessian":[6.216884E1,1.8381353E1,4.3787483E1,2.6583187E1,1.7204296E1,2.3928703E1,2.6544838E0,1.3287278E0,1.5875567E1,2.2478544E1,1.4501594E0,1.2285414E0,1.4259425E0],"tree_param":{"num_deleted":"0","num_feature":"4","num_nodes":"13","size_leaf_vector":"0"}},{"base_weights":[3.2547493E-3,-6.1696833E-1,8.035252E-1,-6.405087E-1,-1.7527521E-3,1.5836439E-1,9.0480095E-1,-3.5548833E-1,4.0064192E-1,3.020197E-1,9.305251E-1,6.5565646E-1,-3.3871107E-2],"categories":[],"categories_nodes":[],"categories_segments":[],"categories_sizes":[],"default_left":[1,1,1,0,0,1,1,0,1,0,0,0,0],"id":14,"left_children":[1,3,5,-1,-1,7,9,-1,11,-1,-1,-1,-1],"loss_changes":[3.1774265E1,5.212326E-1,1.6828995E0,0E0,0E0,7.65434E-1,9.025574E-2,0E0,4.5113963E-1,0E0,0E0,0E0,0E0],"parents":[2147483647,0,0,1,1,2,2,5,5,6,6,8,8],"right_children":[2,4,6,-1,-1,8,10,-1,12,-1,-1,-1,-1],"split_conditions":[4.75E0,1.55E0,1.75E0,-6.4050876E-2,-1.7527521E-4,4.95E0,4.8500004E0,-3.5548832E-2,1.55E0,3.020197E-2,9.3052514E-2,6.5565646E-2,-3.3871108E-3],"split_indices":[2,3,3,0,0,2,2,0,3,0,0,0,0],"split_type":[0,0,0,0,0,0,0,0,0,0,0,0,0],"sum_hessian":[6.201754E1,3.506817E1,2.694937E1,3.3736187E1,1.3319832E0,4.0043025E0,2.2945068E1,1.1333256E0,2.870977E0,1.4605868E0,2.1484482E1,1.4884589E0,1.3825179E0],"tree_param":{"num_deleted":"0","num_feature":"4","num_nodes":"13","size_leaf_vector":"0"}},{"base_weights":[-2.8634095E-3,8.6608964E-1,-6.266767E-1],"categories":[],"categories_nodes":[],"categories_segments":[],"categories_sizes":[],"default_left":[1,0,0],"id":15,"left_children":[1,-1,-1],"loss_changes":[3.3333794E1,0E0,0E0],"parents":[2147483647,0,0],"right_children":[2,-1,-1],"split_conditions":[2.45E0,8.660897E-2,-6.266767E-2],"split_indices":[2,0,0],"split_type":[0,0,0],"sum_hessian":[5.9492867E1,2.469922E1,3.4793648E1],"tree_param":{"num_deleted":"0","num_feature":"4","num_nodes":"3","size_leaf_vector":"0"}},{"base_weights":[-1.1551726E-3,-6.0872626E-1,2.5414687E-1,7.59528E-1,-5.5812657E-1,8.42265E-1,-1.0302381E-2,1.6915258E-3,-6.04806E-1,3.3119723E-1,8.7194794E-1,-3.7590218E-1,3.2250598E-1],"categories":[],"categories_nodes":[],"categories_segments":[],"categories_sizes":[],"default_left":[1,0,1,1,1,1,1,0,0,0,0,0,0],"id":16,"left_children":[1,-1,3,5,7,9,11,-1,-1,-1,-1,-1,-1],"loss_changes":[9.619417E0,0E0,1.8350616E1,1.7503042E0,4.5377827E-1,8.5948944E-2,5.643079E-1,0E0,0E0,0E0,0E0,0E0,0E0],"parents":[2147483647,0,0,2,2,3,3,4,4,5,5,6,6],"right_children":[2,-1,4,6,8,10,12,-1,-1,-1,-1,-1,-1],"split_conditions":[2.45E0,-6.0872626E-2,1.75E0,4.95E0,4.8500004E0,5.05E0,1.55E0,1.6915258E-4,-6.0480602E-2,3.3119723E-2,8.719479E-2,-3.7590217E-2,3.2250598E-2],"split_indices":[2,0,3,2,2,0,3,0,0,0,0,0,0],"split_type":[0,0,0,0,0,0,0,0,0,0,0,0,0],"sum_hessian":[6.0017715E1,1.7348114E1,4.26696E1,2.6343878E1,1.6325724E1,2.3702387E1,2.6414912E0,1.3306946E0,1.49950285E1,1.9684433E0,2.1733944E1,1.1970315E0,1.4444597E0],"tree_param":{"num_deleted":"0","num_feature":"4","num_nodes":"13","size_leaf_vector":"0"}},{"base_weights":[4.0049916E-3,-5.9918064E-1,7.4719036E-1,-6.233304E-1,-2.9071274E-3,1.5109564E-1,8.404847E-1,-3.4174654E-1,3.7724596E-1,2.8353336E-1,8.6459774E-1,6.182086E-1,-3.381598E-2],"categories":[],"categories_nodes":[],"categories_segments":[],"categories_sizes":[],"default_left":[1,1,1,0,0,1,1,0,1,0,0,0,0],"id":17,"left_children":[1,3,5,-1,-1,7,9,-1,11,-1,-1,-1,-1],"loss_changes":[2.7725246E1,4.8984814E-1,1.4138069E0,0E0,0E0,6.8270653E-1,7.364845E-2,0E0,4.053316E-1,0E0,0E0,0E0,0E0],"parents":[2147483647,0,0,1,1,2,2,5,5,6,6,8,8],"right_children":[2,4,6,-1,-1,8,10,-1,12,-1,-1,-1,-1],"split_conditions":[4.75E0,1.55E0,1.75E0,-6.2333044E-2,-2.9071275E-4,4.95E0,4.8500004E0,-3.4174655E-2,1.55E0,2.8353337E-2,8.645978E-2,6.182086E-2,-3.381598E-3],"split_indices":[2,3,3,0,0,2,2,0,3,0,0,0,0],"split_type":[0,0,0,0,0,0,0,0,0,0,0,0,0],"sum_hessian":[5.9849518E1,3.3143383E1,2.6706133E1,3.1809677E1,1.3337057E0,3.9686153E0,2.2737518E1,1.0875041E0,2.8811111E0,1.473017E0,2.1264502E1,1.4986681E0,1.3824431E0],"tree_param":{"num_deleted":"0","num_feature":"4","num_nodes":"13","size_leaf_vector":"0"}},{"base_weights":[-3.59143E-3,8.122894E-1,-6.1163366E-1],"categories":[],"categories_nodes":[],"categories_segments":[],"categories_sizes":[],"default_left":[1,0,0],"id":18,"left_children":[1,-1,-1],"loss_changes":[2.9239416E1,0E0,0E0],"parents":[2147483647,0,0],"right_children":[2,-1,-1],"split_conditions":[2.45E0,8.122894E-2,-6.1163366E-2],"split_indices":[2,0,0],"split_type":[0,0,0],"sum_hessian":[5.6938263E1,2.417028E1,3.276798E1],"tree_param":{"num_deleted":"0","num_feature":"4","num_nodes":"3","size_leaf_vector":"0"}},{"base_weights":[-1.2232667E-3,-5.928676E-1,2.4085405E-1,7.1027195E-1,-5.409863E-1,7.7447176E-1,-1.3425227E-1,8.607173E-4,-5.887899E-1,3.036692E-1,8.011691E-1,2.3463833E-1,8.255799E-1],"categories":[],"categories_nodes":[],"categories_segments":[],"categories_sizes":[],"default_left":[1,0,1,1,1,1,0,0,0,0,1,0,0],"id":19,"left_children":[1,-1,3,5,7,9,-1,-1,-1,-1,11,-1,-1],"loss_changes":[8.54249E0,0E0,1.5919699E1,1.5614624E0,4.2654562E-1,7.257843E-2,0E0,0E0,0E0,0E0,1.2673569E-1,0E0,0E0],"parents":[2147483647,0,0,2,2,3,3,4,4,5,5,10,10],"right_children":[2,-1,4,6,8,10,-1,-1,-1,-1,12,-1,-1],"split_conditions":[2.45E0,-5.9286762E-2,1.75E0,5.05E0,4.8500004E0,5.05E0,-1.3425226E-2,8.6071734E-5,-5.8878988E-2,3.0366922E-2,2.25E0,2.3463834E-2,8.255799E-2],"split_indices":[2,0,3,2,2,0,0,0,0,0,1,0,0],"split_type":[0,0,0,0,0,0,0,0,0,0,0,0,0],"sum_hessian":[5.7647392E1,1.63176E1,4.1329792E1,2.5881842E1,1.544795E1,2.4130423E1,1.75142E0,1.3319926E0,1.4115958E1,1.9589639E0,2.217146E1,1.3542314E0,2.0817226E1],"tree_param":{"num_deleted":"0","num_feature":"4","num_nodes":"13","size_leaf_vector":"0"}},{"base_weights":[4.7866185E-3,-5.8283424E-1,7.00117E-1,-6.0804933E-1,3.801013E-3,1.4458808E-1,7.87392E-1,-3.2843754E-1,3.561264E-1,2.664363E-1,8.1057364E-1,5.8481866E-1,-3.3340387E-2],"categories":[],"categories_nodes":[],"categories_segments":[],"categories_sizes":[],"default_left":[1,1,1,0,0,1,1,0,1,0,0,0,0],"id":20,"left_children":[1,3,5,-1,-1,7,9,-1,11,-1,-1,-1,-1],"loss_changes":[2.4293768E1,4.790449E-1,1.2063541E0,0E0,0E0,6.094736E-1,6.551266E-2,0E0,3.6515394E-1,0E0,0E0,0E0,0E0],"parents":[2147483647,0,0,1,1,2,2,5,5,6,6,8,8],"right_children":[2,4,6,-1,-1,8,10,-1,12,-1,-1,-1,-1],"split_conditions":[4.75E0,1.55E0,1.75E0,-6.0804933E-2,3.8010132E-4,4.95E0,4.8500004E0,-3.2843754E-2,1.55E0,2.6643632E-2,8.105736E-2,5.848187E-2,-3.3340387E-3],"split_indices":[2,3,3,0,0,2,2,0,3,0,0,0,0],"split_type":[0,0,0,0,0,0,0,0,0,0,0,0,0],"sum_hessian":[5.7458794E1,3.1229044E1,2.622975E1,2.9907059E1,1.3219857E0,3.9219804E0,2.2307768E1,1.0411737E0,2.8808067E0,1.4826204E0,2.0825148E1,1.4990102E0,1.3817966E0],"tree_param":{"num_deleted":"0","num_feature":"4","num_nodes":"13","size_leaf_vector":"0"}},{"base_weights":[-4.4970065E-3,7.675845E-1,-5.9815896E-1],"categories":[],"categories_nodes":[],"categories_segments":[],"categories_sizes":[],"default_left":[1,0,0],"id":21,"left_children":[1,-1,-1],"loss_changes":[2.5772507E1,0E0,0E0],"parents":[2147483647,0,0],"right_children":[2,-1,-1],"split_conditions":[2.45E0,7.675845E-2,-5.9815895E-2],"split_indices":[2,0,0],"split_type":[0,0,0],"sum_hessian":[5.4226513E1,2.3443857E1,3.0782656E1],"tree_param":{"num_deleted":"0","num_feature":"4","num_nodes":"3","size_leaf_vector":"0"}},{"base_weights":[-1.1379566E-3,-5.784057E-1,2.2929104E-1,6.680575E-1,-5.2497363E-1,7.301625E-1,-1.3174546E-1,3.760123E-4,-5.7413846E-1,2.7824587E-1,7.56729E-1,2.1901008E-1,7.802799E-1],"categories":[],"categories_nodes":[],"categories_segments":[],"categories_sizes":[],"default_left":[1,0,1,1,1,1,0,0,0,0,1,0,0],"id":22,"left_children":[1,-1,3,5,7,9,-1,-1,-1,-1,11,-1,-1],"loss_changes":[7.6011353E0,0E0,1.3867947E1,1.4007149E0,4.0266514E-1,8.386612E-2,0E0,0E0,0E0,0E0,1.1505985E-1,0E0,0E0],"parents":[2147483647,0,0,2,2,3,3,4,4,5,5,10,10],"right_children":[2,-1,4,6,8,10,-1,-1,-1,-1,12,-1,-1],"split_conditions":[2.45E0,-5.7840567E-2,1.75E0,5.05E0,4.8500004E0,5.05E0,-1.3174546E-2,3.760123E-5,-5.7413846E-2,2.7824586E-2,2.25E0,2.190101E-2,7.8027986E-2],"split_indices":[2,0,3,2,2,0,0,0,0,0,1,0,0],"split_type":[0,0,0,0,0,0,0,0,0,0,0,0,0],"sum_hessian":[5.5146114E1,1.530189E1,3.9844223E1,2.5262793E1,1.4581432E1,2.3523272E1,1.7395203E0,1.332748E0,1.3248684E1,1.9431056E0,2.1580166E1,1.3376666E0,2.02425E1],"tree_param":{"num_deleted":"0","num_feature":"4","num_nodes":"13","size_leaf_vector":"0"}},{"base_weights":[5.582729E-3,-5.6790125E-1,6.604145E-1,-5.9435827E-1,1.0740386E-2,1.4051868E-1,7.428767E-1,-1.7635468E-1,4.131668E-1,2.5057715E-1,7.6563656E-1],"categories":[],"categories_nodes":[],"categories_segments":[],"categories_sizes":[],"default_left":[1,1,1,0,0,1,1,0,0,0,0],"id":23,"left_children":[1,3,5,-1,-1,7,9,-1,-1,-1,-1],"loss_changes":[2.1378965E1,4.7109127E-1,1.0349531E0,0E0,0E0,4.937323E-1,6.254196E-2,0E0,0E0,0E0,0E0],"parents":[2147483647,0,0,1,1,2,2,5,5,6,6],"right_children":[2,4,6,-1,-1,8,10,-1,-1,-1,-1],"split_conditions":[4.75E0,1.55E0,1.75E0,-5.9435826E-2,1.0740387E-3,5.05E0,4.8500004E0,-1.7635468E-2,4.131668E-2,2.5057716E-2,7.656366E-2],"split_indices":[2,3,3,0,0,2,2,0,0,0,0],"split_type":[0,0,0,0,0,0,0,0,0,0,0],"sum_hessian":[5.493057E1,2.9355001E1,2.5575565E1,2.8045527E1,1.309475E0,3.871448E0,2.1704117E1,1.9538498E0,1.9175982E0,1.4897692E0,2.0214348E1],"tree_param":{"num_deleted":"0","num_feature":"4","num_nodes":"11","size_leaf_vector":"0"}},{"base_weights":[-5.516383E-3,7.299536E-1,-5.860234E-1],"categories":[],"categories_nodes":[],"categories_segments":[],"categories_sizes":[],"default_left":[1,0,0],"id":24,"left_children":[1,-1,-1],"loss_changes":[2.2808414E1,0E0,0E0],"parents":[2147483647,0,0],"right_children":[2,-1,-1],"split_conditions":[2.45E0,7.299536E-2,-5.860234E-2],"split_indices":[2,0,0],"split_type":[0,0,0],"sum_hessian":[5.1420383E1,2.2569122E1,2.885126E1],"tree_param":{"num_deleted":"0","num_feature":"4","num_nodes":"3","size_leaf_vector":"0"}},{"base_weights":[-1.0121923E-3,-5.651454E-1,2.1905328E-1,6.3137746E-1,-5.0990963E-1,7.071917E-1,-2.2285696E-2,1.7147663E-4,-5.6066036E-1,7.318795E-1,2.1083066E-1,-3.609168E-1,2.8124303E-1],"categories":[],"categories_nodes":[],"categories_segments":[],"categories_sizes":[],"default_left":[1,0,1,1,1,1,1,0,0,0,0,0,0],"id":25,"left_children":[1,-1,3,5,7,9,11,-1,-1,-1,-1,-1,-1],"loss_changes":[6.773601E0,0E0,1.2120328E1,1.2803936E0,3.8153338E-1,1.2627983E-1,4.7374922E-1,0E0,0E0,0E0,0E0,0E0,0E0],"parents":[2147483647,0,0,2,2,3,3,4,4,5,5,6,6],"right_children":[2,-1,4,6,8,10,12,-1,-1,-1,-1,-1,-1],"split_conditions":[2.45E0,-5.651454E-2,1.75E0,4.95E0,4.8500004E0,1.55E0,1.55E0,1.7147662E-5,-5.6066036E-2,7.318795E-2,2.1083066E-2,-3.609168E-2,2.8124303E-2],"split_indices":[2,0,3,2,2,3,3,0,0,0,0,0,0],"split_type":[0,0,0,0,0,0,0,0,0,0,0,0,0],"sum_hessian":[5.2564278E1,1.4310791E1,3.8253487E1,2.4518772E1,1.37347145E1,2.189717E1,2.621604E0,1.3330666E0,1.24016485E1,2.0407652E1,1.489516E0,1.1497823E0,1.4718215E0],"tree_param":{"num_deleted":"0","num_feature":"4","num_nodes":"13","size_leaf_vector":"0"}},{"base_weights":[6.4387196E-3,-5.5407953E-1,6.2579507E-1,-5.8195645E-1,1.7738106E-2,1.3651629E-1,7.0503044E-1,-1.6341612E-1,3.8787937E-1,2.35827E-1,7.2776806E-1],"categories":[],"categories_nodes":[],"categories_segments":[],"categories_sizes":[],"default_left":[1,1,1,0,0,1,1,0,0,0,0],"id":26,"left_children":[1,3,5,-1,-1,7,9,-1,-1,-1,-1],"loss_changes":[1.886151E1,4.6504498E-1,9.041977E-1,0E0,0E0,4.2803836E-1,6.275082E-2,0E0,0E0,0E0,0E0],"parents":[2147483647,0,0,1,1,2,2,5,5,6,6],"right_children":[2,4,6,-1,-1,8,10,-1,-1,-1,-1],"split_conditions":[4.75E0,1.55E0,1.75E0,-5.8195647E-2,1.7738106E-3,5.05E0,4.8500004E0,-1.6341612E-2,3.878794E-2,2.35827E-2,7.277681E-2],"split_indices":[2,3,3,0,0,2,2,0,0,0,0],"split_type":[0,0,0,0,0,0,0,0,0,0,0],"sum_hessian":[5.233201E1,2.7526178E1,2.4805832E1,2.6229712E1,1.2964655E0,3.8367584E0,2.0969072E1,1.9088972E0,1.9278612E0,1.4947972E0,1.9474276E1],"tree_param":{"num_deleted":"0","num_feature":"4","num_nodes":"11","size_leaf_vector":"0"}},{"base_weights":[-6.3471E-3,6.979138E-1,-5.7489014E-1],"categories":[],"categories_nodes":[],"categories_segments":[],"categories_sizes":[],"default_left":[1,0,0],"id":27,"left_children":[1,-1,-1],"loss_changes":[2.0244299E1,0E0,0E0],"parents":[2147483647,0,0],"right_children":[2,-1,-1],"split_conditions":[2.45E0,6.9791384E-2,-5.7489015E-2],"split_indices":[2,0,0],"split_type":[0,0,0],"sum_hessian":[4.8557804E1,2.1588425E1,2.6969381E1],"tree_param":{"num_deleted":"0","num_feature":"4","num_nodes":"3","size_leaf_vector":"0"}},{"base_weights":[-1.0815192E-3,-5.529136E-1,2.0983937E-1,5.997202E-1,-4.9563652E-1,6.745482E-1,-2.380823E-2,1.9173861E-4,-5.481857E-1,2.2288233E-1,7.0559496E-1,-3.547953E-1,2.7034137E-1],"categories":[],"categories_nodes":[],"categories_segments":[],"categories_sizes":[],"default_left":[1,0,1,1,1,1,1,0,0,0,0,0,0],"id":28,"left_children":[1,-1,3,5,7,9,11,-1,-1,-1,-1,-1,-1],"loss_changes":[6.0411477E0,0E0,1.0626592E1,1.1656837E0,3.6265373E-1,1.5170765E-1,4.4699696E-1,0E0,0E0,0E0,0E0,0E0,0E0],"parents":[2147483647,0,0,2,2,3,3,4,4,5,5,6,6],"right_children":[2,-1,4,6,8,10,12,-1,-1,-1,-1,-1,-1],"split_conditions":[2.45E0,-5.5291362E-2,1.75E0,4.95E0,4.8500004E0,5.05E0,1.55E0,1.9173862E-5,-5.481857E-2,2.2288233E-2,7.0559494E-2,-3.547953E-2,2.7034137E-2],"split_indices":[2,0,3,2,2,0,3,0,0,0,0,0,0],"split_type":[0,0,0,0,0,0,0,0,0,0,0,0,0],"sum_hessian":[4.990623E1,1.3351996E1,3.6554237E1,2.3639687E1,1.291455E1,2.1033667E1,2.60602E0,1.3330349E0,1.1581515E1,1.8788729E0,1.9154793E1,1.1292155E0,1.4768045E0],"tree_param":{"num_deleted":"0","num_feature":"4","num_nodes":"13","size_leaf_vector":"0"}},{"base_weights":[7.2938837E-3,-5.412642E-1,5.953075E-1,-5.7040596E-1,1.7071804E-2,1.3099726E-1,6.724433E-1,-1.5620701E-1,3.67825E-1,2.2207642E-1,6.9548523E-1],"categories":[],"categories_nodes":[],"categories_segments":[],"categories_sizes":[],"default_left":[1,1,1,0,0,1,1,0,0,0,0],"id":29,"left_children":[1,3,5,-1,-1,7,9,-1,-1,-1,-1],"loss_changes":[1.6667376E1,4.4482136E-1,8.048973E-1,0E0,0E0,3.8353503E-1,6.491852E-2,0E0,0E0,0E0,0E0],"parents":[2147483647,0,0,1,1,2,2,5,5,6,6],"right_children":[2,4,6,-1,-1,8,10,-1,-1,-1,-1],"split_conditions":[4.75E0,1.55E0,1.75E0,-5.70406E-2,1.7071804E-3,5.05E0,4.8500004E0,-1.5620701E-2,3.67825E-2,2.2207642E-2,6.9548525E-2],"split_indices":[2,3,3,0,0,2,2,0,0,0,0],"split_type":[0,0,0,0,0,0,0,0,0,0,0],"sum_hessian":[4.9673283E1,2.5739967E1,2.3933317E1,2.4442593E1,1.297375E0,3.7940028E0,2.0139315E1,1.8684849E0,1.9255179E0,1.4980018E0,1.8641312E1],"tree_param":{"num_deleted":"0","num_feature":"4","num_nodes":"11","size_leaf_vector":"0"}}]},"name":"gbtree"},"learner_model_param":{"base_score":"5E-1","num_class":"3","num_feature":"4","num_target":"1"},"objective":{"name":"multi:softprob","softmax_multiclass_param":{"num_class":"3"}}},"version":[1,6,2]}